<?xml version="1.0"?>
<opencv_storage>
<stage11>
  <maxWeakCount>4</maxWeakCount>
  <stageThreshold>-1.3425509929656982e+00</stageThreshold>
  <weakClassifiers>
    <_>
      <internalNodes>
        0 -1 12817 1092737279 1463812112 -1073694465 1532248214
        167837833 -1056833526 115443855 1333770922</internalNodes>
      <leafValues>
        -6.7532467842102051e-01 5.7992565631866455e-01</leafValues></_>
    <_>
      <internalNodes>
        0 -1 15135 -691801349 1359077698 38277625 269500770 1099030695
        1099169920 46828203 51899327</internalNodes>
      <leafValues>
        -6.2182086706161499e-01 6.2693500518798828e-01</leafValues></_>
    <_>
      <internalNodes>
        0 -1 4203 -1069201833 -1861222138 1342292471 -1852620783
        -1408630229 -2013200382 260324335 -337031157</internalNodes>
      <leafValues>
        -5.8413481712341309e-01 6.3914096355438232e-01</leafValues></_>
    <_>
      <internalNodes>
        0 -1 31779 -585817558 -771742174 67178588 1912690177 352506273
        -1425932158 -1660882143 2097409211</internalNodes>
      <leafValues>
        -7.2028720378875732e-01 5.3872936964035034e-01</leafValues></_></weakClassifiers></stage11>
</opencv_storage>
